e 3136 2704
kernels
channel
-0.0724344 -0.326963 -0.259254 -0.259382 0.00200729 0.141826 0.347163 0.571187 0.56019 
channel
-0.253161 0.0188684 -0.187572 -0.0420246 -0.460238 -0.405366 0.585587 0.444246 0.215044 
channel
0.419537 -0.0865137 -0.277502 0.367715 -0.259704 -0.17667 0.412539 -0.270958 0.123367 
channel
-0.166723 -0.057417 0.625875 0.537361 0.182563 0.134357 0.0590095 0.0975619 0.355028 
c 2704 676
e 676 324
kernels
channel
-0.319957 -0.321763 -0.465063 0.0490569 -0.15662 0.205774 -0.528185 -0.568521 -0.229066 -0.537233 -0.0730164 -0.146428 -0.398721 -0.0275129 -0.381227 -0.135323 -0.380324 -0.186532 0.0798114 0.038805 -0.15552 -0.40162 0.0049998 0.266327 0.180564 
channel
0.246741 -0.334663 -0.0443903 0.0819708 -0.0818055 0.531512 0.283442 0.0339162 -0.232643 0.0282773 0.142071 0.870929 0.788517 0.456906 -0.0426566 -0.382125 -0.380479 0.128258 -0.055002 0.176266 0.10449 -0.186291 -0.160003 0.185253 0.023542 
channel
-0.299426 0.173596 0.0656957 -0.0963719 0.207058 0.318735 -0.453922 -0.112877 0.320747 0.363363 -0.146738 -0.257311 0.17616 0.512525 -0.130154 -0.138965 -0.311055 0.12205 0.320694 0.38264 -0.295111 0.0761767 0.119564 0.162866 0.131999 
channel
-0.0609872 0.469843 0.0248945 -0.338865 -0.269714 -0.0166797 -0.382508 -0.0595812 -0.417168 -0.489386 -0.294191 -0.389876 0.221245 -0.576762 -0.0471124 -0.0176956 0.395399 0.228917 -0.243416 -0.117768 0.309067 0.0865067 0.392731 0.143565 0.348351 
c 324 36
a 36 32
weights
-0.0984963 -0.113066 -0.0120343 -0.0982415 -0.192354 0.0764341 0.083857 -0.0284716 0.0261185 0.0669596 0.1677 0.0535348 -0.143723 -0.0452028 -0.117906 -0.0493482 0.0291814 -0.0170375 0.0736445 -0.0155391 -0.0202984 0.0247925 0.0941253 -0.0943664 0.0164684 0.0481225 0.0683144 0.0420613 0.123172 -0.138647 0.00335068 0.200503 
-0.0285516 -0.0539133 -0.0725994 -0.0186223 -0.0783005 0.0586787 -0.0476031 -0.0788931 0.0534282 0.046815 0.0698397 0.0601226 -0.0185582 0.142264 0.114312 0.145898 -0.0386436 -0.0488231 -0.13535 -0.0123015 -0.00679288 0.100063 -0.0419834 0.0208889 0.00379985 -0.322559 0.163091 -0.0146531 -0.110604 -0.160052 0.0615544 0.0535906 
-0.369689 -0.0411744 -0.298816 -0.0448293 -0.11353 0.11119 0.152316 -0.0850653 -0.0737707 -0.0188428 -0.0685346 -0.058996 -0.0510357 -0.112567 -0.0805007 0.101316 0.115016 0.0754708 0.20157 0.0346064 0.0574591 -0.0858047 0.126447 -0.110596 -0.0864373 -0.0886741 0.107436 -0.219746 -0.129359 0.0189008 0.0433062 -0.0414699 
0.166022 -0.17763 0.144579 0.11128 -0.0741324 0.0273179 0.0983411 -0.00805867 0.118814 -0.0153498 -0.0499162 -0.210873 0.0433268 -0.149398 0.137312 -0.0640308 0.171057 0.203705 0.0388528 -0.0251077 0.0586881 0.0613414 -0.0864096 0.145487 0.0586488 0.00241444 -0.0979789 -0.363908 0.289147 -0.162002 0.22654 -0.118437 
0.190735 -0.235379 0.0226437 0.0413196 0.0207992 -0.00932204 0.0939345 0.111066 -0.00677753 -0.00274885 -0.114649 -0.0635983 -0.00467844 -0.0281933 -0.126167 -0.00572389 -0.12372 -0.0629326 0.0787608 0.190925 -0.0591329 0.0667701 0.137719 0.123326 0.243403 -0.0435251 -0.194072 -0.0355707 0.059213 0.0679205 0.127418 0.0104978 
0.204079 -0.0487799 0.189165 -0.178869 -0.155182 -0.11045 -0.0353844 -0.137572 -0.0961003 -0.0540229 0.00505112 -0.0375121 -0.0824872 -0.0991556 0.0431799 0.0272655 -0.0693429 0.013473 -0.124047 -0.0529231 0.104306 -0.103932 -0.00918941 0.0609807 0.253919 0.15627 -0.0484878 -0.135459 0.0982919 -0.00441717 0.177885 0.0996274 
-0.266952 -0.00529491 0.0491044 -0.223893 -0.0419549 0.225788 -0.254066 -0.049146 0.121048 -0.0882472 -0.023674 -0.075427 -0.119506 0.234539 0.0771201 -0.131102 -0.0405012 0.177396 -0.00809562 0.0280578 -0.133533 -0.106776 0.0864866 -0.0286323 -0.00531634 -0.0075112 -0.0356875 0.330336 -0.0809425 0.158731 -0.00441806 -0.159626 
0.0162813 -0.17921 -0.0153169 -0.224882 0.0631997 0.118848 -0.131915 0.0847278 0.13383 0.026591 -0.00619057 -0.0323569 -0.0428319 -0.0383724 -0.0833947 0.260873 -0.0570525 -0.0510899 -0.0598413 -0.0255607 0.0332502 -0.011327 -0.0609504 -0.0534835 -0.0979249 0.0373826 0.102631 -0.0800638 -0.048285 0.124625 0.150902 -0.0787051 
0.150483 -0.273781 -0.0705356 -0.0437815 -0.0214841 -0.113822 -0.153941 0.0411473 -0.208815 -0.140783 0.0725385 0.0662283 0.185497 -0.0550415 0.169951 0.128127 -0.0371177 -0.109745 -0.0913189 -0.00910649 -0.0427378 0.0652482 -0.0182156 -0.0453935 -0.181844 0.015834 0.0175352 0.233003 -0.00494588 0.161263 -0.0131845 -0.0914424 
-0.0121133 -0.229223 0.163492 0.0837689 0.0978822 0.0852694 0.0665708 -0.119257 -0.0998111 -0.166979 -0.155991 -0.0117345 0.12978 0.0477076 0.107938 -0.368402 -0.066065 0.105724 0.0697181 0.0648566 0.035371 -0.105242 0.181023 -0.0416037 -0.119536 0.30122 0.0405887 0.00472189 0.06548 -0.0790994 0.0991044 -0.145434 
0.10742 -0.171119 -0.056701 0.0227059 -0.0577867 -0.0050987 0.13825 -0.152136 -0.0122798 0.0411677 -0.00672847 -0.150787 0.0378085 -0.0990036 0.0464357 -0.184587 0.150703 -0.110476 0.12066 -0.0929721 0.0422785 -0.108178 0.10752 0.0971587 0.112429 0.183394 -0.111001 0.0986071 0.145961 0.13707 0.024562 -0.210487 
0.079466 -0.0353869 -0.0357702 0.0804322 -0.0912909 -0.152221 0.057999 0.0947225 0.139707 0.160937 -0.0457726 -0.131286 0.115426 -0.0876597 -0.113232 -0.104656 0.105947 0.00313203 -0.184879 -0.0849115 0.1023 -0.146208 0.0229497 -0.0488498 0.111743 0.348331 -0.0382596 -0.069496 0.271711 0.0444617 0.096802 -0.028188 
-0.0544332 0.0552666 0.029602 -0.0723533 -0.112396 -0.113333 -0.0149278 0.015415 -0.0194585 0.143737 -0.0483274 -0.109637 -0.112289 -0.0369648 -0.0446596 -0.149105 0.221767 -0.0759864 0.110568 0.0798519 -0.0496986 -0.129438 0.145415 0.131167 0.0231141 0.178381 0.0217225 -0.0188972 0.0198784 0.0752296 -0.00857948 0.0629897 
-0.104861 0.312584 -0.0524376 -0.072202 0.0349429 -0.0940327 0.105234 0.0995918 0.0464368 0.118346 -0.0234434 -0.0116744 -0.130298 -0.0664102 0.27592 -0.151547 -0.0541922 -0.0263879 0.101089 -0.349593 -0.00885075 0.0852158 -0.193251 0.0248432 -0.0143409 0.107513 0.112396 -0.040671 -0.0253254 -0.0856338 0.160529 -0.186977 
-0.0427187 0.203015 0.111647 0.1204 -0.0687584 0.120445 -0.200491 0.0952749 -0.264688 0.051632 -0.0783241 0.220865 -0.0580356 0.201873 0.0289422 -0.36977 0.0295986 0.196017 -0.14292 -0.060514 0.017951 0.162246 -0.0383521 0.168262 0.0156191 0.0257668 -0.0153041 0.203823 -0.0392095 -0.043051 0.117298 -0.311508 
-0.0872913 0.144238 0.0377639 -0.0564915 -0.137711 0.045447 -0.207912 0.0693032 0.0215026 -0.0429995 0.0469337 0.0224875 -0.184671 0.245287 -0.00189334 -0.042074 0.115598 0.106624 0.175127 -0.174623 -0.0428346 0.0858661 0.0704312 0.0888797 0.148592 0.306533 -0.00370241 0.00277818 0.130714 0.17224 -0.0360636 0.133641 
0.0833813 0.189244 -0.0165035 0.218258 0.034311 -0.106775 -0.0711283 0.068508 0.00446305 -0.132038 0.0219583 0.00285896 0.0567133 0.113669 0.114844 -0.253219 -0.000793896 0.093526 -0.173142 -0.0478682 0.0350934 0.199238 0.0368087 -0.0191942 0.0622809 -0.218547 -0.0246576 0.25583 0.16574 0.0663114 0.1064 0.073873 
-0.0174 0.191284 -0.208769 0.293097 -0.0331208 -0.142149 0.0116739 0.120069 0.0655826 0.0290504 0.0995107 0.0628699 -0.146314 -0.000168942 -0.109772 -0.0232691 0.0467059 0.062353 0.076226 -0.101279 -0.0980668 0.323003 0.164069 -0.030726 -0.0392814 0.00177983 0.0457234 -0.226546 0.00301757 -0.0839141 -0.228481 -0.0818698 
0.0165149 -0.118338 0.0322327 -0.149814 0.0233559 -0.201479 -0.0495842 0.137894 -0.144275 -0.00125323 -0.0961232 0.0620333 0.0622532 -0.098515 -0.0347842 -0.0400042 -0.229466 -0.282311 0.110792 0.0427795 -0.141809 0.0493557 -0.330359 0.133194 -0.16688 -0.0566821 -0.112099 0.00168376 -0.17724 -0.0208656 0.0185627 -0.185081 
0.0880177 0.121014 -0.114178 0.0766957 0.0404687 0.269051 -0.169185 0.035225 -0.0756607 -0.187841 -0.0895259 0.150437 0.0570373 0.0031558 -0.0913817 0.20826 -0.0437744 -0.080611 0.0788103 0.128664 0.00711429 0.0760224 -0.050612 0.120785 0.0180015 -0.153815 0.146463 0.13827 -0.186111 -0.0418357 -0.147048 0.0135345 
-0.0737946 -0.183814 -0.102283 -0.112361 0.0621765 0.172984 0.0868569 -0.0545297 -0.166308 -0.282082 -0.0362239 -0.0978012 0.147132 0.125706 0.110949 0.115379 -0.145025 0.064445 0.104544 -0.071584 0.0951146 0.0856758 0.134502 -0.0450256 -0.156344 0.392092 0.130453 -0.037531 -0.0344452 -0.0442767 -0.287501 0.128589 
-0.107209 0.380586 -0.181942 -0.257179 -0.142691 -0.115319 -0.00401317 -0.131756 -0.0309955 0.075258 0.089765 0.18306 0.0334379 0.0153771 -0.0846614 -0.312114 -0.231142 -0.316057 -0.137784 0.121605 -0.188275 0.0456512 0.00332493 -0.189845 0.291302 -0.217497 -0.181758 0.199668 0.164322 0.0180761 0.0540986 -0.0164754 
-0.147129 -0.0171477 -0.0719177 0.136196 -0.0402964 0.117713 0.0462708 -0.0350715 0.15107 -0.0509535 -0.0638929 -0.0791428 -0.0182888 0.0878254 0.0176991 0.0429215 0.211962 -0.0400278 0.187606 0.124859 -0.177175 -0.0501672 -0.0249092 -0.0679711 -0.200841 -0.0605149 -0.0878959 0.00273408 0.091039 0.0469858 0.106305 -0.149309 
-0.0324537 -0.216281 -0.0848799 -0.165277 0.144078 -0.066067 -0.00424843 -0.28515 0.228278 -0.0361855 0.16648 0.0830209 -0.14633 -0.0382217 -0.155149 -0.294725 -0.0714136 0.116293 0.200892 0.0375206 0.151485 -0.173561 0.284084 -0.160833 0.00970555 0.122654 -0.0146544 -0.0807985 -0.0589845 0.0604875 -0.0745514 -0.0170405 
0.318837 0.109287 -0.0132868 0.196233 0.0751255 -0.104458 0.224761 0.0622872 0.100318 -0.162077 -0.0678558 0.239767 0.110194 -0.119544 0.0294933 0.068411 0.0467335 0.0557086 -2.61752e-05 0.0794499 0.0603467 0.195829 0.00171274 -0.0726021 -0.225 -0.136636 -0.125071 -0.0765227 0.080556 -0.188501 -0.0335541 0.128653 
0.118656 -0.0227889 0.156565 -0.266324 0.0202002 -0.000293774 0.166621 -0.0411581 0.137746 0.0947342 0.00647997 -0.196173 -0.0131926 0.0126371 -0.103168 0.274271 0.118266 -0.095096 -0.103793 0.0921812 -0.223447 0.109152 -0.0992316 0.111494 -0.00924717 0.163833 0.0650819 -0.018968 -0.0793956 0.0197064 -0.090537 -0.104667 
-0.126662 0.111081 -0.0406198 0.16439 -0.0204317 -0.0542746 -0.0875524 0.0756734 0.080358 -0.129961 -0.021428 -0.129378 -0.0201035 -0.0981192 -0.0262247 -0.125154 -0.0657957 -0.0804729 -0.183591 -0.0623448 0.210087 -0.158094 -0.0776391 0.102545 0.0277676 -0.115223 0.131328 0.12556 0.0269312 0.0628202 -0.0770114 0.115555 
0.112793 -0.114974 0.136824 -0.226855 -0.0681725 -0.0343444 0.0514797 0.0712197 -0.0888257 0.0354959 0.0727664 0.201005 -0.0578905 -0.111244 -0.00763296 -0.0380325 -0.1931 -0.147656 -0.0426944 0.208968 -0.097254 0.0764759 -0.00077437 0.0696221 0.0152718 0.0489522 -0.210989 0.174823 -0.0593348 -0.0578515 0.0911042 0.0789617 
-0.0639881 -0.229551 -0.137565 -0.0256743 0.126243 0.160888 -0.0856975 0.0336867 -0.116007 -0.110056 -0.0955323 -0.132003 -0.12758 -0.133943 0.125428 -0.073256 -0.00874458 -0.08885 0.0099743 -0.0316683 -0.0172693 -0.0570346 0.122187 0.0498695 0.145792 0.188878 -0.0771847 0.15742 -0.0928144 -0.121482 0.00460699 -0.0736313 
-0.0524391 -0.136752 0.0602987 0.095928 -0.137284 0.0744954 -0.0582385 -0.112604 -0.136083 -0.0295311 0.162499 -0.0640249 -0.0378852 0.0591949 -0.2273 -0.123165 0.174547 -0.0589686 -0.176408 0.267676 -0.146822 -0.0711703 0.0587107 0.11215 -0.08827 -0.156609 -0.150627 0.168898 0.159481 -0.165253 0.120252 0.00841984 
0.00240828 -0.0374589 -0.160231 -0.0710105 -0.0715736 -0.104396 0.0369142 0.0265786 0.0768455 -0.243536 -0.0715117 0.170514 -0.0791065 0.0214539 0.209574 -0.0629679 0.00462897 0.120751 0.196815 0.179011 0.0712405 0.0618383 0.127402 0.0713817 -0.0974279 0.0632935 0.0536152 -0.242995 -0.111647 0.0464874 -0.0822828 0.0214186 
0.00906032 -0.0136932 -0.122463 0.0132802 -0.0300663 -0.0749749 0.0605033 0.112287 -0.120848 0.00413003 0.128702 0.0576235 -0.0455283 0.109145 -0.0560578 0.0858323 -0.1434 -0.00622848 -0.0807744 0.139461 0.205846 -0.0346625 0.130889 -0.0212309 0.0147748 -0.0349405 0.150135 -0.198396 0.0214696 -0.126822 0.0962949 0.0184785 
0.0516817 0.0918195 -0.0147506 0.0406302 -0.0110745 -0.164423 -0.149205 -0.227211 0.114489 0.0518627 0.122751 -0.109198 -0.140585 -0.0915626 -0.191686 -0.0686872 0.104589 0.153659 0.0738791 0.120839 0.0187292 0.135647 0.188673 0.0680321 -0.000982227 -0.0310325 0.170605 -0.149424 0.116178 0.125806 0.114007 -0.141032 
-0.172925 -0.214069 -0.0722389 0.0049516 0.0143194 0.0594643 -0.0568786 -0.00266408 -0.137191 0.0420771 0.162859 -0.172203 0.0699677 0.0845143 0.072497 0.0151393 -0.238704 -0.0171354 0.0470766 -0.124023 0.150775 0.00307327 0.106936 -0.161076 0.0392895 0.222875 -0.0893665 0.210677 -0.103385 -0.0955402 0.152004 0.180577 
0.169748 0.217908 0.181151 0.0244201 -0.0455377 -0.0291742 -0.0137503 -0.00932991 0.107841 -0.0272064 -0.134918 0.122327 0.127875 0.0739368 0.0430187 0.125506 -0.0735682 -0.137477 0.105891 -0.16724 -0.0199507 -0.208146 0.10508 -0.15574 0.102349 0.216384 -0.0111271 0.0979544 -0.0209343 0.0325299 -0.218691 -0.0743779 
0.0676318 0.0512608 0.0552887 0.0620542 0.0127397 0.103435 0.0239401 0.0132347 -0.0406017 -0.0910156 0.0455927 0.0795945 0.0110495 0.010142 0.0740985 0.0336122 0.0685383 -0.0642215 -0.00961954 -0.241735 -0.00954759 -0.00429539 -0.120696 0.0510669 -0.169329 0.029643 -0.00444723 -0.0707607 0.149839 -0.0702587 0.0091285 -0.117632 
biases
-0.000329272 0.0194378 0.255826 0.0232067 0.06591 0.243281 0.0772335 0.163712 0.0639772 0.0189426 -0.0503756 -0.0022731 -0.239714 0.0994952 0.150718 0.281735 -0.0403549 0.00441089 -0.0521347 0.0281684 0.209381 0.034289 0.175286 -0.0627359 -0.0747806 -0.053286 0.110207 0.126671 -0.170238 0.0523327 0.0470316 0.325885 
b 32 32
a 32 10
weights
0.123357 0.044052 0.0897792 -0.0867922 0.014876 0.0656845 -0.00761891 0.106976 0.0938717 -0.0538675 
0.171836 0.0748198 0.0107285 0.0544993 0.00904578 -0.0509735 -0.00300257 -0.485679 -0.0128835 0.210962 
-0.145502 0.0542193 -0.0651467 -0.0277094 -0.113552 0.128447 -0.0145952 0.0425912 0.0267472 -0.0446205 
0.0852497 0.02557 0.0153211 0.0453942 -0.181859 0.0104158 0.101495 -0.0193399 0.113549 -0.241861 
0.0344054 0.0247334 -0.0178636 -0.0486121 0.0225151 -0.0608508 -0.0316277 -0.0106237 0.000302321 -0.0155915 
0.0131332 0.11369 -0.00511139 0.0871941 -0.0191928 -0.085331 -0.00356818 0.079995 -0.117672 -0.0526147 
0.0158421 0.0402197 0.0173019 -0.115346 -0.0775673 -0.135803 0.00980977 -0.0103029 0.0861763 0.036444 
-0.0582772 0.0649659 0.00218996 0.0298653 -0.0564524 0.0184693 -0.0616086 0.0375943 0.061009 -0.0668025 
-0.00682942 -0.00159903 -0.0448266 0.00195778 -0.0340176 -0.0669324 0.027152 -0.0407224 -0.0100256 0.0992436 
0.0308063 0.0890547 0.0557758 -0.0320763 -0.0880866 0.0331897 0.0139731 0.0493527 0.0167835 0.107577 
-0.0632576 -0.00853524 -0.0313052 -0.0883218 -0.0478533 0.00836903 -0.037248 -0.0550978 -0.109784 0.0152259 
0.013039 -0.074463 -0.0588984 -0.123024 0.0438112 0.0231619 0.0225932 -0.0272471 -0.00340968 -0.0839493 
0.0423567 -0.109575 -0.102863 -0.0610713 -0.0244347 -0.0766009 -0.0343078 -0.0310404 0.0879681 -0.0742514 
-0.0740425 -0.0156652 -0.0424002 0.0621725 0.0665013 0.103057 0.120127 0.0367255 -0.100996 -0.0280304 
-0.0736002 0.0400655 -0.0902381 0.066805 0.0425824 0.000274114 -0.0216398 -0.0456361 0.0561384 -0.0294827 
-0.104709 0.61785 -0.114197 -0.114961 -0.143519 0.0467125 -0.125531 -0.205069 -0.0867648 0.0444746 
-0.159359 -0.014383 0.019461 0.106809 -0.176073 -0.000164038 0.0177727 0.0123967 -0.000724581 0.0709106 
-0.042781 -0.000648337 0.0830128 0.13887 -0.0715617 0.0182805 0.0236584 0.0326086 -0.059852 -0.0600144 
-0.0262392 -0.0474078 0.0436889 0.0360486 0.042873 -0.0619098 -0.0306756 0.00952904 0.0332816 0.0171538 
0.0608325 0.0271368 -0.0342601 -0.0751916 0.0740212 0.00195885 0.0855392 0.101751 -0.110779 -0.120755 
0.0933518 0.0619388 -0.00542898 0.107494 -0.0181959 -0.0174431 -0.037726 -0.012311 -0.0569428 -0.0205496 
-0.0484743 0.00539962 0.0687276 -0.0984578 0.116695 0.0586324 0.0214121 -0.00960773 0.074588 -0.201855 
0.0551671 0.0456739 0.0547804 0.0773651 -0.087019 -0.0278161 -0.0317728 0.0957843 -0.241253 -0.016202 
-0.173147 0.0671393 0.00271563 -0.00474861 0.0504822 0.0714481 -0.0421902 -0.0149005 0.0179517 -0.0972958 
0.0220586 -0.0220092 -0.0477835 -0.0862986 -0.0254626 0.115351 -0.0198408 -0.113211 -0.151265 -0.00215739 
0.00392479 -0.0566946 0.13844 -0.0856135 0.186832 0.178811 -0.471225 0.00355532 0.0900108 -0.0830299 
-0.00600852 -0.0082102 -0.000359686 0.0550415 0.0963553 -0.056705 -0.0239822 0.0307158 -0.0655921 -0.0437984 
0.113083 0.0436772 -0.440671 0.183322 -0.0470225 -0.0103863 0.114792 0.106413 0.159044 -0.0490601 
0.0123697 -0.0876541 0.0045378 -0.0264676 -0.187958 0.0793158 0.0503489 0.0746153 -0.048469 0.16711 
-0.0112685 0.0642342 -0.128852 0.0763065 0.00245144 -0.00185404 -0.0479201 0.00268201 -0.0531557 0.0186026 
0.0400391 -0.126315 -0.0203538 -0.0436219 -0.102697 0.0937987 -0.0120081 -0.0194671 0.0231745 0.021672 
0.246823 0.0536615 -0.0245111 0.0977123 -0.143141 -0.0234647 -0.0389287 -0.0295455 -0.0269862 0.0416386 
biases
0.0558043 0.626365 0.0652433 -0.0564748 -0.0190284 -0.00241651 0.14369 0.13521 -0.202094 0.127855 
